[
	{
		"Weights": [
			[0.2192505,-0.5641845,0.322143,-0.2182659],
			[0.464834,-0.3546584,0.3942912,0.3838712],
			[0.6080859,0.5173495,-1.45243,-0.9548492],
			[-0.2934036,0.2711874,1.393015,-0.5849483]
		],
		"Bias": [
			0.01,
			0.01,
			0.01,
			0.01
		]
	},
	{
		"Weights": [
			[-0.3682401,-1.247618,-0.9790879,0.1073067],
			[1.404047,-1.0041,-0.8386455,-0.8358136],
			[0.5796837,0.1177596,-0.5391337,-0.08388766],
			[0.3745713,-0.2219261,-0.850112,0.09655236]
		],
		"Bias": [
			-0.3135158,
			-0.0557205,
			0.3108852,
			0.05681688
		]
	},
	{
		"Weights": [
			[0.5219633,-0.3366576,0.7320232,-0.5764037,-0.4436589,-0.1821712,0.4495107,-0.06511237,0.7594571,0.4846407,1.102,0.5172216,-0.5202706,-0.1161165,0.4775602,0.1509278,-0.01255806,-1.23188,-1.535842,1.06125,0.05970613,0.8788776,0.3779846,0.2915716,-0.1676189,0.3817639,-0.5834457],
			[-0.08087198,-0.2649285,-1.455901,0.2096104,-0.5070441,-0.9344047,0.8044894,1.484039,-0.7565594,0.3144981,-0.6040528,1.544715,-0.0249483,-0.3552916,0.4308482,0.5825412,1.048759,0.2630137,0.04118586,0.08790673,0.01861437,0.5710204,1.602942,-0.3109157,0.1186821,-1.442837,0.583999],
			[0.7517327,0.7614752,-0.7013865,-0.153177,-0.2010159,1.511992,0.9818627,-0.4482552,-0.200085,0.8169961,-0.3734453,-0.2670749,1.102321,0.5069855,0.5445631,-1.208589,-0.1935107,0.186253,-0.3277327,0.4889351,0.7806488,0.296495,-1.089151,0.01792847,0.2964361,0.6321216,0.5439763],
			[0.177315,-0.859206,-0.04027183,-0.4771703,1.895972,0.9567278,0.3334228,-0.6937456,0.2936133,0.4931652,0.3543204,-1.523953,0.2303642,0.8202551,0.8821223,0.5833602,0.01270124,-0.4597371,0.3365521,-0.2121972,-1.014294,-0.3993295,-0.09777112,0.9071759,1.267737,-0.3892536,-0.0161702]
		],
		"Bias": [
			0.01,
			0.01,
			-0.3654439,
			0.01,
			0.01,
			0.01,
			0.01,
			0.01,
			0.01,
			0.01,
			0.01,
			0.01,
			0.01,
			0.01,
			0.01,
			0.01,
			0.01,
			0.01,
			0.01,
			0.01,
			0.01,
			0.01,
			0.01,
			0.01,
			0.01,
			0.01,
			0.01
		]
	}
]